encog,BasicNetwork,java,3.4.0,1,1460576408519
[BASIC]
[BASIC:PARAMS]
[BASIC:NETWORK]
beginTraining=0
connectionLimit=0
contextTargetOffset=0,0,0
contextTargetSize=0,0,0
endTraining=2
hasContext=f
inputCount=4
layerCounts=1,43,5
layerFeedCounts=1,42,4
layerContextCount=0,0,0
layerIndex=0,1,44
output=0.3168668972,0.8200823304,0.4806550559,0.2652665315,0.7875489511,0.3656526581,0.4596263789,0.8629771807,0.4169393108,0.6642395231,0.1903948325,0.6385682538,0.4678715182,0.6016193941,0.5611415322,0.19114223,0.7437204513,0.4022040371,0.4821592511,0.2736688842,0.7055280177,0.4171126495,0.3668271696,0.3455156836,0.2357684547,0.5189055167,0.8582292355,0.1482531756,0.4540183905,0.4351364143,0.2203201352,0.3172238885,0.7374956038,0.7297249334,0.5790193239,0.6251246736,0.6567495964,0.2744931202,0.6019149586,0.8134804742,0.6416955985,0.1386158944,0.5989622555,1,0.8333333333,0.3333333333,0,0.8644067797,1
outputCount=1
weightIndex=0,43,253
weights=-0.2905075519,0.5702038542,-0.6140663089,0.7779305281,0.7151109126,-0.7185988885,-0.7972011188,0.8224957835,-0.8244549997,-0.8528772759,0.3122361477,0.4653543527,0.113371235,-0.2225171216,-1.3155783588,0.202621076,0.6224748946,-0.0132745105,0.4655876311,0.5963725725,-1.0239289609,-0.1742187037,-0.0233264072,0.2890563737,0.60999214,-1.0297824734,-5.0741813256,-1.0286050334,-0.8764332589,0.0202933465,0.417568885,0.2308822538,0.1657912101,0.9123603776,0.594761255,0.7389488757,-0.5038102307,-0.7716228964,-0.3531125445,0.8252137866,-0.2840962174,-0.7608253985,0.4590176163,1.021014266,0.1614735959,-0.5678046475,-0.0035673085,0.6153192353,-0.568360912,0.8920058839,-0.178821381,-0.0987960844,0.1842803824,-0.6489242009,0.0270701899,-0.8816783929,0.3418398013,-0.7825145768,0.0150551664,0.3845780713,-0.2683593079,0.4533524283,0.7775943504,0.0380461035,-0.394701275,0.1549407935,-0.25808289,-0.2279621958,-0.4846144161,-0.1960428861,-0.9353727216,0.3506769583,0.0042185838,0.9313263195,0.3839150893,1.0932261128,0.135499786,0.8190368759,0.8569893657,-0.3347705032,-0.2183543904,-0.5523516707,-0.4604617138,0.2813075775,-0.6123774667,-0.4063710738,0.8677097042,-0.0981065376,-0.6680360229,-0.6258284093,-0.7674627446,0.0766699056,-0.7484145304,0.8091804492,0.0984112749,0.2057679329,0.5199271181,-0.5873939748,0.5931610281,1.1965602471,0.0673318787,-0.8915244119,-0.2512057695,0.9395529343,-0.0225633087,-0.0739337771,-1.043504146,0.5387895477,0.3518144353,-1.2758928782,-0.4970808245,0.2586298764,0.1543537065,-0.6299249196,-1.1969617032,0.6492421751,-0.0285089714,-0.4940372654,-0.1014754399,-0.3810753045,0.7292528671,0.5597891498,0.793098823,-0.7868984765,0.9192874058,0.3175539846,0.824516853,-0.7596883442,0.3073246166,-0.8419260327,-0.9763362536,0.0749772078,-0.1116659475,-0.2792719126,-0.6901196022,-0.2483261233,0.1178608921,-0.6152003626,0.4077548762,0.5265793511,-0.3014208521,-0.6180258035,0.8926661357,0.5492840064,-0.9907714079,-0.8756558679,-0.3809698424,-0.1328042371,0.6536730238,-1.5618900205,-0.5027179049,0.2388717884,-0.7764325155,0.7382977986,-1.1198750896,-0.4334307084,-0.4791467636,-0.4665883444,-0.2844966524,0.3382623294,0.8704498354,-0.1289248723,-0.940250646,0.1983749309,0.9023142697,0.2157703744,-0.0210829957,-0.3722014452,0.6586267895,0.5243680607,-0.8514220699,0.7662340588,0.4146768928,-1.1510225149,-3.548702381,0.3951947923,0.1219682765,0.2882881479,0.8067187622,-0.8677717513,0.3154940219,0.3493136001,-0.8694050168,-0.4727073899,0.4684490234,0.1701937134,-0.5828103797,0.480633711,0.1964853735,-0.2245683064,-0.773053614,-0.890204255,-0.5831848731,-0.8252671451,0.7866357739,1.0112085219,0.5902881404,-0.8512975812,-0.909922216,1.0602988535,0.470691311,0.8326790948,0.7180544052,-0.2387138283,0.5652151504,-0.6490252826,0.4819526231,0.5871474793,0.5348438017,0.7894942658,-0.5126952485,-0.639048127,0.1622785291,0.1486170802,-0.1292088911,-0.7189733374,-0.159241776,0.5682293343,0.8603227419,0.6515864249,0.6418247416,0.655361214,-0.8517871761,0.0145802706,-0.7493061743,0.0427084805,-0.4817295656,-0.3179155556,0.5150496373,-1.0489948365,-1.1459062248,-0.4496926033,0.7226247658,0.5662098453,0.679419485,0.8064843585,-0.5120292642,1.2170728626,-0.4592529888,0.559850161,-0.7776987651,0.2249362102,0.5843888555,-0.5482717336,0.2310253304,-0.8624010652,-0.9069442813,-0.6629803084,-0.6164755405,0.1259149175,-0.1990309709,0.0044603298,0.8690454737
biasActivation=0,1,1
[BASIC:ACTIVATION]
"org.encog.engine.network.activation.ActivationSigmoid"
"org.encog.engine.network.activation.ActivationSigmoid"
"org.encog.engine.network.activation.ActivationLinear"
