encog,BasicNetwork,java,3.4.0,1,1460588328026
[BASIC]
[BASIC:PARAMS]
[BASIC:NETWORK]
beginTraining=0
connectionLimit=0
contextTargetOffset=0,0,0
contextTargetSize=0,0,0
endTraining=2
hasContext=f
inputCount=4
layerCounts=1,43,5
layerFeedCounts=1,42,4
layerContextCount=0,0,0
layerIndex=0,1,44
output=0.3202155818,0.7115139908,0.584828304,0.3339161163,0.6875283984,0.0000939375,0.4040198466,0.7556154128,0.6875399064,0.5696975866,0.5714458419,0.2541382488,0.8262024143,0.7315292338,0.1820354107,0.6586156066,0.3337792663,0.5941958072,0.7662661699,0.8965423054,0.4346040665,0.1999277769,0.3420639147,0.5401065593,0.3844245876,0.8910182827,0.3205762264,0.2280105191,0.0928757736,0.8361995437,0.4822362408,0.4923013079,0.7018080852,0.4552438589,0.4952029559,0.2487850537,0.2866964934,0.7449325442,0.3792118871,0.5407652665,0.5625529441,0.6467585243,0.623369752,1,0.8333333333,0.3333333333,0,0.8644067797,1
outputCount=1
weightIndex=0,43,253
weights=0.5541838287,0.6763938949,-0.7870766934,-0.1869388385,-5.3096311483,-0.6646990659,0.239005261,-0.0885637583,-0.2984587235,-0.4577345693,0.6039972963,-0.4697900505,0.8661591893,-0.8486435394,-0.5239830102,-0.6496770644,0.1342451156,0.4266648835,0.3152978568,0.1950609143,0.3563204423,-1.0403371541,0.6729481023,-0.27950828,0.3514940051,0.4510624749,-1.0972649001,-0.3336954922,-0.3974989803,0.0524074357,-0.4056843755,-0.2828055218,0.3036712919,0.1034178227,-0.4594734258,-0.3562746531,0.4982056439,-0.1690628105,-0.588245167,-0.4935695659,0.2410061536,0.6079027232,-0.688846763,-0.6722430055,1.4273262558,0.481538736,0.513166513,0.5435909642,-0.1319824723,1.2455541725,0.2145514768,-0.5450575412,0.5085782501,-0.6016311719,-1.0943848691,-0.3827035148,0.1910998418,0.0104404658,1.0109318436,-2.0331627267,-0.9899343322,0.8693597276,-0.1276131912,-4.1076274485,-3.0804385403,-4.7356000542,-0.8792777051,-4.0628977851,0.9264304434,-1.1671207953,-0.6687451921,-0.5296218546,-0.3139197474,0.5896271492,0.4060379908,-0.0219482403,0.1369845571,0.3836770375,0.7455371873,-0.3061536324,0.724042772,0.9777331104,-0.5757457948,0.8577018546,-2.1154159268,-0.1238305784,-0.4269630793,0.640074299,-0.7093693431,-1.2015167689,-0.6040341885,0.5598837176,0.7954320214,-0.9437896115,1.9331000747,0.1940353335,-0.4491820782,-0.5462611722,0.6481544994,0.8877862021,-0.3507430191,-0.4879061358,1.144640364,0.0274811724,0.1780892601,0.9858675029,0.0692012593,0.8603130524,-0.904428431,-1.3402321169,-0.4374304899,0.2742496564,-0.5392466781,0.9175272021,0.6243650913,-0.1469901688,-0.2700032854,-0.0822040578,-0.583721467,-1.1291116439,0.1655663941,-0.4723710354,0.5799846767,-0.948119047,1.2258467947,0.2550836626,-0.1569523742,0.8984924514,0.7541953477,0.9208640798,-0.0041209922,-0.3461741622,0.5511310765,0.9280808076,0.2294241381,-0.1242961853,0.5480262032,0.8357897494,0.5326436425,1.6677685704,0.66645035,-0.8352639933,-0.5408755285,0.3840540194,0.0961389214,0.9297522005,-1.2046761483,-0.6975069099,-0.9231365893,-0.8549871773,-0.6653793325,-0.4087638943,0.7535043111,-0.8823916354,1.2497178286,-0.2685123888,0.405255664,0.1292196501,-0.9686039642,-0.7068058721,-0.1048927513,0.9028741322,-0.2084884152,0.7848110959,1.3575102792,-0.8888684161,0.1401209044,0.8735506767,0.3412001472,0.67912408,0.3094500953,-0.7927852361,-0.5765441797,-0.6511250814,-1.2140050697,0.9780473039,0.2379268781,-0.4779721751,-0.9117196242,-0.6667136991,-0.4190953585,-0.504423918,-0.8609848642,0.3772783715,-0.3398462352,-0.0199002044,0.7435679485,0.7863565759,0.2451255256,2.075654554,0.1450624083,-0.5912036815,-0.4562006071,0.848480756,-1.32111961,0.8679110087,0.3677097168,-0.6153420678,-0.4234947471,0.6900652441,0.3037581671,-0.1103201289,1.0741747037,-0.5444280231,1.5247749216,-0.572733242,-0.0517988885,-0.1892979955,0.7066309151,0.9674954692,0.6873679607,-0.5728385877,-0.435380792,-0.7536349212,-0.8305867536,0.0431664818,-0.3180641399,0.0747256125,-0.8125352957,-0.5715750279,-0.7307206473,0.4652769737,-0.4460336784,0.3423015805,-0.1093287635,-0.478200418,0.6726967136,0.2414736312,-0.0558679174,-0.4960395391,0.2360045384,0.0901033659,-0.3588775524,0.5387756646,-1.6344900522,0.5507319514,0.8690666279,-0.491952973,-0.2045330982,-1.1735151634,-0.8050986848,0.2201648122,0.6228335823,0.2850232005,0.7431064097,0.7529899958,0.5223670699,-0.3319379961,0.4936164932,0.9001700146,0.0709080807,0.2019014254,-0.3820527965
biasActivation=0,1,1
[BASIC:ACTIVATION]
"org.encog.engine.network.activation.ActivationSigmoid"
"org.encog.engine.network.activation.ActivationSigmoid"
"org.encog.engine.network.activation.ActivationLinear"
