encog,BasicNetwork,java,3.4.0,1,1460583686593
[BASIC]
[BASIC:PARAMS]
[BASIC:NETWORK]
beginTraining=0
connectionLimit=0
contextTargetOffset=0,0,0
contextTargetSize=0,0,0
endTraining=2
hasContext=f
inputCount=4
layerCounts=1,43,5
layerFeedCounts=1,42,4
layerContextCount=0,0,0
layerIndex=0,1,44
output=0.3163100924,0.0994894168,0.5962010079,0.4080611196,0.7305303613,0.4432168506,0.530828121,0.4829118968,0.7775819258,0.48800879,0.3815220226,0.3719420006,0.2824885573,0.50051756,0.1641510381,0.6086913741,0.5046377421,0.3698138097,0.4357153122,0.6675956561,0.809154785,0.6285630629,0.815127267,0.6870953243,0.4661781037,0.3030766627,0.808986691,0.8177000972,0.1705129826,0.5112559186,0.3267621387,0.7249996622,0.3574023949,0.3525574133,0.4312254951,0.4316770032,0.3437614064,0.4907764445,0.8499884651,0.6474181165,0.7879011113,0.6674696441,0.5002101407,1,0.8333333333,0.3333333333,0,0.8644067797,1
outputCount=1
weightIndex=0,43,253
weights=-0.6303859271,-1.0221334757,-0.4911453781,0.7839582066,0.8039414044,-0.2707805529,0.6002494676,-0.251217877,-0.5535969675,0.8353508222,-0.7227610813,0.1250578484,-0.9181726574,-0.4809491873,0.1042154644,0.2576438794,-0.5542942371,0.7936554538,-0.6991598173,-0.7492462227,-0.3328990295,0.4566608144,0.0322522544,0.2096338776,0.3911252518,0.1732078478,0.80023381,-1.1140141854,0.7345533216,0.7654834594,0.5725478842,-2.3641857771,0.0301137911,0.2638871187,-0.4285466945,0.5294172145,-0.302477451,0.0572523968,0.2044426546,0.3312564802,0.3204063499,-0.7974751809,-0.7475457398,-0.2988337157,-1.0130544205,0.5865777142,-0.9254166877,-0.8162612805,0.7992814592,-0.0768630642,-1.0215866663,0.0862349014,-0.3253282327,-0.0131856191,0.0446105261,-0.6650268116,-0.5499715616,0.0995305661,0.2695050582,0.8160458326,0.4933389385,-0.4005868891,0.8469822634,-0.0817059955,0.6626215769,0.858848143,0.5111130555,-0.82271181,0.0375997095,-0.5172140714,0.2741461391,0.7743464055,-0.4048095849,-0.1382657694,1.5057211034,-0.7567822553,-0.2987184203,-0.196850376,0.5602495273,-0.644253608,-1.1261199551,0.454417334,0.6067053534,1.005708811,-0.9952371534,-0.1266852457,-0.5401095542,-0.0874446365,0.6675434811,0.285479772,-0.071985699,-0.1885165205,-0.9715842093,-0.1058519314,0.2737752834,0.3144493851,-0.8081789241,0.1716522678,-0.1771801262,-0.0123455016,0.0342059576,-0.3867307697,-0.4460928793,0.7036343855,-1.5035720458,0.6226093007,0.08010521,-0.1523445517,-0.1051283521,-0.5480710811,0.4722438562,-0.6431049822,-0.8014593343,0.4515189578,1.0893626773,-0.6959491293,-0.1878732062,-0.1351730262,-0.2619541346,1.1013106971,1.09923487,-0.5479823691,0.3434227218,0.9401276044,-1.1051347138,0.3319947099,-0.130985822,-0.8348520539,-0.0805778431,1.0249513451,-0.2358809975,0.2997017631,-0.7921362953,-0.7347820307,0.2384358094,-1.1112392279,0.1832456259,1.0717715483,-0.00303325,-0.7206305356,0.5627940567,0.9148138655,0.8964941002,1.0550131618,-1.042781553,-0.8304236196,-0.9352390215,0.802900431,0.200157259,0.7192947906,-0.1370279664,0.5280487693,0.6206650158,0.2134932136,-0.3562978881,1.2354635565,-0.0438371187,0.7653224973,-0.4276965354,-0.0744153959,0.2724635862,-0.1477894337,0.3734746022,-0.7718959056,0.2847909333,-0.6019231672,-0.3131835632,-0.0136553571,-0.6369113285,0.7771396932,0.8824251345,0.9698680248,0.8767917395,0.8142318872,0.5685543165,0.81391228,0.2147946708,0.4471278439,-0.3677225023,-0.6577419836,0.4632654865,-0.9512108689,-0.2340801502,-0.5144650124,1.4075522969,-0.1619587477,-0.5145147094,0.4493180302,0.7077160743,0.8031489085,1.0879586209,-0.9279730884,-0.778199669,0.1214441192,1.5862213076,-1.0113918175,0.1510531403,0.2088836359,-0.7069218919,-1.4470486997,0.66668576,0.4856939618,0.0649575737,-0.1253610461,0.9069084294,0.7811229052,-0.8746882251,-0.0495654765,-0.3858075482,1.3753565385,0.4567344739,0.0375387095,-0.4462475155,-0.7967260628,0.3577017732,-0.186467567,0.3246746022,-0.0109587487,0.4291191161,1.5898093999,1.0117094501,-0.6457083257,-0.9759576777,-0.874254435,-0.4084061868,-0.4853285259,0.1302974689,0.7151523347,0.6657054621,0.9443166422,-0.1184608977,0.5331554653,0.4041206239,-0.3844088488,1.3327050311,-0.3173322435,0.7273792967,-0.1449364629,0.457677,0.527500227,0.4708953035,0.7336683574,0.1209011557,0.0939781991,1.5866180247,-0.6470171317,0.0792913746,0.0210349178,0.3209901786,-1.176816864,0.7569468205,0.3864733811,-0.2084491754
biasActivation=0,1,1
[BASIC:ACTIVATION]
"org.encog.engine.network.activation.ActivationSigmoid"
"org.encog.engine.network.activation.ActivationSigmoid"
"org.encog.engine.network.activation.ActivationLinear"
